J48 pruned tree
------------------

logsfsUsedBytes <= 21131264
|   ioServiceRecursiveWrite <= 2
|   |   rootfsUsedBytes <= 61440: apache (59.0)
|   |   rootfsUsedBytes > 61440: nginx (295.0)
|   ioServiceRecursiveWrite > 2
|   |   rootfsUsedBytes <= 86016: mysql (177.0)
|   |   rootfsUsedBytes > 86016: postgresql (59.0)
logsfsUsedBytes > 21131264: mongodb (177.0)

Number of Leaves  : 	5

Size of the tree : 	9
