J48 pruned tree
------------------

imageSizeBytes <= 176316251
|   rootfsUsedBytes <= 61440: apache (59.0)
|   rootfsUsedBytes > 61440: nginx (299.0)
imageSizeBytes > 176316251
|   rootfsUsedBytes <= 86016
|   |   logsfsUsedBytes <= 41656320: mysql (179.0)
|   |   logsfsUsedBytes > 41656320: mongodb (178.0)
|   rootfsUsedBytes > 86016: postgresql (60.0)

Number of Leaves  : 	5

Size of the tree : 	9
